digraph Tree {
node [shape=box, style="filled, rounded", color="black", fontname=helvetica] ;
edge [fontname=helvetica] ;
0 [label="duration <= 521.5\ngini = 0.207\nsamples = 27128\nvalue = [23954, 3174]\nclass = 0", fillcolor="#e89253"] ;
1 [label="poutcome_success <= 0.5\ngini = 0.141\nsamples = 24097\nvalue = [22262, 1835]\nclass = 0", fillcolor="#e78b49"] ;
0 -> 1 [labeldistance=2.5, labelangle=45, headlabel="True"] ;
2 [label="duration <= 206.5\ngini = 0.11\nsamples = 23343\nvalue = [21974, 1369]\nclass = 0", fillcolor="#e78945"] ;
1 -> 2 ;
3 [label="duration <= 111.5\ngini = 0.053\nsamples = 14866\nvalue = [14460, 406]\nclass = 0", fillcolor="#e6853f"] ;
2 -> 3 ;
4 [label="gini = 0.019\nsamples = 7403\nvalue = [7333, 70]\nclass = 0", fillcolor="#e5823b"] ;
3 -> 4 ;
5 [label="gini = 0.086\nsamples = 7463\nvalue = [7127, 336]\nclass = 0", fillcolor="#e68742"] ;
3 -> 5 ;
6 [label="housing_no <= 0.5\ngini = 0.201\nsamples = 8477\nvalue = [7514, 963]\nclass = 0", fillcolor="#e89152"] ;
2 -> 6 ;
7 [label="gini = 0.101\nsamples = 4881\nvalue = [4621, 260]\nclass = 0", fillcolor="#e68844"] ;
6 -> 7 ;
8 [label="gini = 0.315\nsamples = 3596\nvalue = [2893, 703]\nclass = 0", fillcolor="#eba069"] ;
6 -> 8 ;
9 [label="gini = 0.472\nsamples = 754\nvalue = [288, 466]\nclass = 1", fillcolor="#b3daf5"] ;
1 -> 9 ;
10 [label="duration <= 835.5\ngini = 0.493\nsamples = 3031\nvalue = [1692, 1339]\nclass = 0", fillcolor="#fae5d6"] ;
0 -> 10 [labeldistance=2.5, labelangle=-45, headlabel="False"] ;
11 [label="contact_unknown <= 0.5\ngini = 0.463\nsamples = 1958\nvalue = [1246, 712]\nclass = 0", fillcolor="#f4c9aa"] ;
10 -> 11 ;
12 [label="duration <= 630.5\ngini = 0.488\nsamples = 1418\nvalue = [820, 598]\nclass = 0", fillcolor="#f8ddc9"] ;
11 -> 12 ;
13 [label="gini = 0.459\nsamples = 705\nvalue = [454, 251]\nclass = 0", fillcolor="#f3c7a6"] ;
12 -> 13 ;
14 [label="gini = 0.5\nsamples = 713\nvalue = [366, 347]\nclass = 0", fillcolor="#fef8f5"] ;
12 -> 14 ;
15 [label="gini = 0.333\nsamples = 540\nvalue = [426, 114]\nclass = 0", fillcolor="#eca36e"] ;
11 -> 15 ;
16 [label="balance <= 675.0\ngini = 0.486\nsamples = 1073\nvalue = [446, 627]\nclass = 1", fillcolor="#c6e3f7"] ;
10 -> 16 ;
17 [label="gini = 0.495\nsamples = 571\nvalue = [256, 315]\nclass = 1", fillcolor="#daedfa"] ;
16 -> 17 ;
18 [label="gini = 0.47\nsamples = 502\nvalue = [190, 312]\nclass = 1", fillcolor="#b2d9f5"] ;
16 -> 18 ;
}